<?xml version="1.0"?>
<opencv_storage>
<cascade>
  <stageType>BOOST</stageType>
  <featureType>HAAR</featureType>
  <height>24</height>
  <width>24</width>
  <stageParams>
    <boostType>GAB</boostType>
    <minHitRate>9.9500000476837158e-01</minHitRate>
    <maxFalseAlarm>5.0000000000000000e-01</maxFalseAlarm>
    <weightTrimRate>9.4999999999999996e-01</weightTrimRate>
    <maxDepth>1</maxDepth>
    <maxWeakCount>100</maxWeakCount></stageParams>
  <featureParams>
    <maxCatCount>0</maxCatCount>
    <featSize>1</featSize>
    <mode>BASIC</mode></featureParams>
  <stageNum>20</stageNum>
  <stages>
    <!-- stage 0 -->
    <_>
      <maxWeakCount>1</maxWeakCount>
      <stageThreshold>9.9327272176742554e-01</stageThreshold>
      <weakClassifiers>
        <_>
          <internalNodes>
            0 -1 22 -3.4139561466872692e-03</internalNodes>
          <leafValues>
            9.9327272176742554e-01 -1.</leafValues></_></weakClassifiers></_>
    <!-- stage 1 -->
    <_>
      <maxWeakCount>1</maxWeakCount>
      <stageThreshold>9.9227988719940186e-01</stageThreshold>
      <weakClassifiers>
        <_>
          <internalNodes>
            0 -1 20 -4.6625200775451958e-04</internalNodes>
          <leafValues>
            9.9227988719940186e-01 -1.</leafValues></_></weakClassifiers></_>
    <!-- stage 2 -->
    <_>
      <maxWeakCount>1</maxWeakCount>
      <stageThreshold>9.9203187227249146e-01</stageThreshold>
      <weakClassifiers>
        <_>
          <internalNodes>
            0 -1 5 -6.2888058891985565e-05</internalNodes>
          <leafValues>
            -1. 9.9203187227249146e-01</leafValues></_></weakClassifiers></_>
    <!-- stage 3 -->
    <_>
      <maxWeakCount>1</maxWeakCount>
      <stageThreshold>9.9203085899353027e-01</stageThreshold>
      <weakClassifiers>
        <_>
          <internalNodes>
            0 -1 0 -6.6506937146186829e-03</internalNodes>
          <leafValues>
            -9.5348834991455078e-01 9.9203085899353027e-01</leafValues></_></weakClassifiers></_>
    <!-- stage 4 -->
    <_>
      <maxWeakCount>1</maxWeakCount>
      <stageThreshold>9.9079257249832153e-01</stageThreshold>
      <weakClassifiers>
        <_>
          <internalNodes>
            0 -1 7 -6.5834142267704010e-02</internalNodes>
          <leafValues>
            -1. 9.9079257249832153e-01</leafValues></_></weakClassifiers></_>
    <!-- stage 5 -->
    <_>
      <maxWeakCount>1</maxWeakCount>
      <stageThreshold>9.9252802133560181e-01</stageThreshold>
      <weakClassifiers>
        <_>
          <internalNodes>
            0 -1 15 5.8250017464160919e-03</internalNodes>
          <leafValues>
            9.9252802133560181e-01 -1.</leafValues></_></weakClassifiers></_>
    <!-- stage 6 -->
    <_>
      <maxWeakCount>3</maxWeakCount>
      <stageThreshold>1.3590428829193115e+00</stageThreshold>
      <weakClassifiers>
        <_>
          <internalNodes>
            0 -1 37 4.1736773709999397e-05</internalNodes>
          <leafValues>
            9.8980224132537842e-01 -1.</leafValues></_>
        <_>
          <internalNodes>
            0 -1 25 -2.2397981956601143e-04</internalNodes>
          <leafValues>
            9.7655570507049561e-01 -5.1441192626953125e-01</leafValues></_>
        <_>
          <internalNodes>
            0 -1 2 1.2463718652725220e-02</internalNodes>
          <leafValues>
            -6.0731512308120728e-01 9.8008805513381958e-01</leafValues></_></weakClassifiers></_>
    <!-- stage 7 -->
    <_>
      <maxWeakCount>2</maxWeakCount>
      <stageThreshold>1.9486945867538452e+00</stageThreshold>
      <weakClassifiers>
        <_>
          <internalNodes>
            0 -1 35 1.6661739209666848e-04</internalNodes>
          <leafValues>
            9.9029606580734253e-01 -9.4444441795349121e-01</leafValues></_>
        <_>
          <internalNodes>
            0 -1 4 5.6420342298224568e-04</internalNodes>
          <leafValues>
            9.5839852094650269e-01 -1.</leafValues></_></weakClassifiers></_>
    <!-- stage 8 -->
    <_>
      <maxWeakCount>2</maxWeakCount>
      <stageThreshold>1.9483354091644287e+00</stageThreshold>
      <weakClassifiers>
        <_>
          <internalNodes>
            0 -1 24 -8.0591179430484772e-03</internalNodes>
          <leafValues>
            -8.4615385532379150e-01 9.9054139852523804e-01</leafValues></_>
        <_>
          <internalNodes>
            0 -1 32 -1.7359232879243791e-04</internalNodes>
          <leafValues>
            -9.5928740501403809e-01 9.5779407024383545e-01</leafValues></_></weakClassifiers></_>
    <!-- stage 9 -->
    <_>
      <maxWeakCount>3</maxWeakCount>
      <stageThreshold>1.2608581781387329e+00</stageThreshold>
      <weakClassifiers>
        <_>
          <internalNodes>
            0 -1 21 3.3686712849885225e-03</internalNodes>
          <leafValues>
            9.9054491519927979e-01 -1.</leafValues></_>
        <_>
          <internalNodes>
            0 -1 8 -1.0849351383512840e-05</internalNodes>
          <leafValues>
            9.8358607292175293e-01 -2.9687914252281189e-01</leafValues></_>
        <_>
          <internalNodes>
            0 -1 3 -3.6698394978884608e-05</internalNodes>
          <leafValues>
            -7.1327275037765503e-01 9.2464709281921387e-01</leafValues></_></weakClassifiers></_>
    <!-- stage 10 -->
    <_>
      <maxWeakCount>3</maxWeakCount>
      <stageThreshold>1.3681775331497192e+00</stageThreshold>
      <weakClassifiers>
        <_>
          <internalNodes>
            0 -1 34 6.6508735471870750e-05</internalNodes>
          <leafValues>
            9.8782455921173096e-01 -1.</leafValues></_>
        <_>
          <internalNodes>
            0 -1 19 1.1746138334274292e-03</internalNodes>
          <leafValues>
            -4.0065839886665344e-01 9.7473824024200439e-01</leafValues></_>
        <_>
          <internalNodes>
            0 -1 11 -1.0119273611053359e-05</internalNodes>
          <leafValues>
            9.1427755355834961e-01 -5.9438532590866089e-01</leafValues></_></weakClassifiers></_>
    <!-- stage 11 -->
    <_>
      <maxWeakCount>3</maxWeakCount>
      <stageThreshold>1.4309562444686890e+00</stageThreshold>
      <weakClassifiers>
        <_>
          <internalNodes>
            0 -1 16 -8.8338581845164299e-03</internalNodes>
          <leafValues>
            -1. 9.8807156085968018e-01</leafValues></_>
        <_>
          <internalNodes>
            0 -1 25 -5.1124196033924818e-04</internalNodes>
          <leafValues>
            9.8186570405960083e-01 -4.0899071097373962e-01</leafValues></_>
        <_>
          <internalNodes>
            0 -1 29 7.0742387324571609e-03</internalNodes>
          <leafValues>
            -5.3898102045059204e-01 9.2178601026535034e-01</leafValues></_></weakClassifiers></_>
    <!-- stage 12 -->
    <_>
      <maxWeakCount>3</maxWeakCount>
      <stageThreshold>1.4379719495773315e+00</stageThreshold>
      <weakClassifiers>
        <_>
          <internalNodes>
            0 -1 12 4.5684911310672760e-04</internalNodes>
          <leafValues>
            9.8905879259109497e-01 -9.3548387289047241e-01</leafValues></_>
        <_>
          <internalNodes>
            0 -1 25 -5.1124196033924818e-04</internalNodes>
          <leafValues>
            9.7077047824859619e-01 -3.3850869536399841e-01</leafValues></_>
        <_>
          <internalNodes>
            0 -1 27 1.4636639971286058e-03</internalNodes>
          <leafValues>
            -5.2185732126235962e-01 9.4662159681320190e-01</leafValues></_></weakClassifiers></_>
    <!-- stage 13 -->
    <_>
      <maxWeakCount>2</maxWeakCount>
      <stageThreshold>1.9567074775695801e+00</stageThreshold>
      <weakClassifiers>
        <_>
          <internalNodes>
            0 -1 13 -1.4741650375071913e-04</internalNodes>
          <leafValues>
            -1. 9.8881292343139648e-01</leafValues></_>
        <_>
          <internalNodes>
            0 -1 14 5.3133617620915174e-04</internalNodes>
          <leafValues>
            9.6789455413818359e-01 -7.4898064136505127e-01</leafValues></_></weakClassifiers></_>
    <!-- stage 14 -->
    <_>
      <maxWeakCount>2</maxWeakCount>
      <stageThreshold>1.9515889883041382e+00</stageThreshold>
      <weakClassifiers>
        <_>
          <internalNodes>
            0 -1 30 7.2164897574111819e-05</internalNodes>
          <leafValues>
            9.8905879259109497e-01 -9.3548387289047241e-01</leafValues></_>
        <_>
          <internalNodes>
            0 -1 1 4.7222143039107323e-03</internalNodes>
          <leafValues>
            -7.3620867729187012e-01 9.6253013610839844e-01</leafValues></_></weakClassifiers></_>
    <!-- stage 15 -->
    <_>
      <maxWeakCount>2</maxWeakCount>
      <stageThreshold>1.9438865184783936e+00</stageThreshold>
      <weakClassifiers>
        <_>
          <internalNodes>
            0 -1 23 -7.8840004280209541e-03</internalNodes>
          <leafValues>
            -1. 9.8807156085968018e-01</leafValues></_>
        <_>
          <internalNodes>
            0 -1 26 3.4554176032543182e-02</internalNodes>
          <leafValues>
            9.5581495761871338e-01 -8.2411962747573853e-01</leafValues></_></weakClassifiers></_>
    <!-- stage 16 -->
    <_>
      <maxWeakCount>2</maxWeakCount>
      <stageThreshold>1.9609344005584717e+00</stageThreshold>
      <weakClassifiers>
        <_>
          <internalNodes>
            0 -1 10 -4.5482991263270378e-03</internalNodes>
          <leafValues>
            -1. 9.8955482244491577e-01</leafValues></_>
        <_>
          <internalNodes>
            0 -1 38 2.1512809325940907e-04</internalNodes>
          <leafValues>
            9.7137957811355591e-01 -7.6541650295257568e-01</leafValues></_></weakClassifiers></_>
    <!-- stage 17 -->
    <_>
      <maxWeakCount>3</maxWeakCount>
      <stageThreshold>1.2712187767028809e+00</stageThreshold>
      <weakClassifiers>
        <_>
          <internalNodes>
            0 -1 9 -3.0276454053819180e-03</internalNodes>
          <leafValues>
            -9.3103450536727905e-01 9.8856431245803833e-01</leafValues></_>
        <_>
          <internalNodes>
            0 -1 8 -1.0849351383512840e-05</internalNodes>
          <leafValues>
            9.6085083484649658e-01 -4.7725152969360352e-01</leafValues></_>
        <_>
          <internalNodes>
            0 -1 31 5.2540434990078211e-04</internalNodes>
          <leafValues>
            9.0328192710876465e-01 -6.7819643020629883e-01</leafValues></_></weakClassifiers></_>
    <!-- stage 18 -->
    <_>
      <maxWeakCount>5</maxWeakCount>
      <stageThreshold>1.5330841541290283e+00</stageThreshold>
      <weakClassifiers>
        <_>
          <internalNodes>
            0 -1 36 3.8668062188662589e-05</internalNodes>
          <leafValues>
            9.8831862211227417e-01 -1.</leafValues></_>
        <_>
          <internalNodes>
            0 -1 17 2.1849680691957474e-02</internalNodes>
          <leafValues>
            9.6602737903594971e-01 -5.2473634481430054e-01</leafValues></_>
        <_>
          <internalNodes>
            0 -1 33 -3.0227878596633673e-04</internalNodes>
          <leafValues>
            -6.9887816905975342e-01 8.7861132621765137e-01</leafValues></_>
        <_>
          <internalNodes>
            0 -1 28 2.6805230299942195e-04</internalNodes>
          <leafValues>
            -5.8918899297714233e-01 9.0890467166900635e-01</leafValues></_>
        <_>
          <internalNodes>
            0 -1 6 1.6515346942469478e-04</internalNodes>
          <leafValues>
            8.6680537462234497e-01 -7.9133909940719604e-01</leafValues></_></weakClassifiers></_>
    <!-- stage 19 -->
    <_>
      <maxWeakCount>1</maxWeakCount>
      <stageThreshold>9.9250936508178711e-01</stageThreshold>
      <weakClassifiers>
        <_>
          <internalNodes>
            0 -1 18 -1.4060670509934425e-02</internalNodes>
          <leafValues>
            -3.7500000000000000e-01 9.9250936508178711e-01</leafValues></_></weakClassifiers></_></stages>
  <features>
    <_>
      <rects>
        <_>
          0 2 6 22 -1.</_>
        <_>
          3 2 3 22 2.</_></rects>
      <tilted>0</tilted></_>
    <_>
      <rects>
        <_>
          0 5 12 12 -1.</_>
        <_>
          4 5 4 12 3.</_></rects>
      <tilted>0</tilted></_>
    <_>
      <rects>
        <_>
          0 6 9 12 -1.</_>
        <_>
          3 6 3 12 3.</_></rects>
      <tilted>0</tilted></_>
    <_>
      <rects>
        <_>
          0 22 4 1 -1.</_>
        <_>
          2 22 2 1 2.</_></rects>
      <tilted>0</tilted></_>
    <_>
      <rects>
        <_>
          0 22 11 2 -1.</_>
        <_>
          0 23 11 1 2.</_></rects>
      <tilted>0</tilted></_>
    <_>
      <rects>
        <_>
          2 0 15 4 -1.</_>
        <_>
          2 2 15 2 2.</_></rects>
      <tilted>0</tilted></_>
    <_>
      <rects>
        <_>
          2 11 2 2 -1.</_>
        <_>
          3 11 1 2 2.</_></rects>
      <tilted>0</tilted></_>
    <_>
      <rects>
        <_>
          4 0 16 20 -1.</_>
        <_>
          4 10 16 10 2.</_></rects>
      <tilted>0</tilted></_>
    <_>
      <rects>
        <_>
          5 9 4 1 -1.</_>
        <_>
          7 9 2 1 2.</_></rects>
      <tilted>0</tilted></_>
    <_>
      <rects>
        <_>
          6 3 2 8 -1.</_>
        <_>
          6 7 2 4 2.</_></rects>
      <tilted>0</tilted></_>
    <_>
      <rects>
        <_>
          6 4 2 15 -1.</_>
        <_>
          6 9 2 5 3.</_></rects>
      <tilted>0</tilted></_>
    <_>
      <rects>
        <_>
          6 9 2 3 -1.</_>
        <_>
          7 9 1 3 2.</_></rects>
      <tilted>0</tilted></_>
    <_>
      <rects>
        <_>
          6 20 2 2 -1.</_>
        <_>
          6 21 2 1 2.</_></rects>
      <tilted>0</tilted></_>
    <_>
      <rects>
        <_>
          7 0 17 2 -1.</_>
        <_>
          7 1 17 1 2.</_></rects>
      <tilted>0</tilted></_>
    <_>
      <rects>
        <_>
          7 8 2 2 -1.</_>
        <_>
          7 9 2 1 2.</_></rects>
      <tilted>0</tilted></_>
    <_>
      <rects>
        <_>
          7 8 4 10 -1.</_>
        <_>
          7 13 4 5 2.</_></rects>
      <tilted>0</tilted></_>
    <_>
      <rects>
        <_>
          7 12 8 4 -1.</_>
        <_>
          11 12 4 4 2.</_></rects>
      <tilted>0</tilted></_>
    <_>
      <rects>
        <_>
          8 7 11 10 -1.</_>
        <_>
          8 12 11 5 2.</_></rects>
      <tilted>0</tilted></_>
    <_>
      <rects>
        <_>
          8 8 10 6 -1.</_>
        <_>
          13 8 5 6 2.</_></rects>
      <tilted>0</tilted></_>
    <_>
      <rects>
        <_>
          8 11 6 2 -1.</_>
        <_>
          10 11 2 2 3.</_></rects>
      <tilted>0</tilted></_>
    <_>
      <rects>
        <_>
          8 14 16 2 -1.</_>
        <_>
          16 14 8 2 2.</_></rects>
      <tilted>0</tilted></_>
    <_>
      <rects>
        <_>
          9 11 10 5 -1.</_>
        <_>
          14 11 5 5 2.</_></rects>
      <tilted>0</tilted></_>
    <_>
      <rects>
        <_>
          9 14 10 10 -1.</_>
        <_>
          9 19 10 5 2.</_></rects>
      <tilted>0</tilted></_>
    <_>
      <rects>
        <_>
          10 9 4 8 -1.</_>
        <_>
          10 13 4 4 2.</_></rects>
      <tilted>0</tilted></_>
    <_>
      <rects>
        <_>
          11 8 6 5 -1.</_>
        <_>
          14 8 3 5 2.</_></rects>
      <tilted>0</tilted></_>
    <_>
      <rects>
        <_>
          11 11 2 2 -1.</_>
        <_>
          12 11 1 2 2.</_></rects>
      <tilted>0</tilted></_>
    <_>
      <rects>
        <_>
          11 11 12 10 -1.</_>
        <_>
          11 11 6 5 2.</_>
        <_>
          17 16 6 5 2.</_></rects>
      <tilted>0</tilted></_>
    <_>
      <rects>
        <_>
          12 9 1 12 -1.</_>
        <_>
          12 13 1 4 3.</_></rects>
      <tilted>0</tilted></_>
    <_>
      <rects>
        <_>
          12 11 2 2 -1.</_>
        <_>
          13 11 1 2 2.</_></rects>
      <tilted>0</tilted></_>
    <_>
      <rects>
        <_>
          15 6 9 11 -1.</_>
        <_>
          18 6 3 11 3.</_></rects>
      <tilted>0</tilted></_>
    <_>
      <rects>
        <_>
          16 22 4 2 -1.</_>
        <_>
          16 23 4 1 2.</_></rects>
      <tilted>0</tilted></_>
    <_>
      <rects>
        <_>
          17 8 2 4 -1.</_>
        <_>
          17 10 2 2 2.</_></rects>
      <tilted>0</tilted></_>
    <_>
      <rects>
        <_>
          18 1 1 6 -1.</_>
        <_>
          18 4 1 3 2.</_></rects>
      <tilted>0</tilted></_>
    <_>
      <rects>
        <_>
          18 8 1 4 -1.</_>
        <_>
          18 10 1 2 2.</_></rects>
      <tilted>0</tilted></_>
    <_>
      <rects>
        <_>
          18 20 1 4 -1.</_>
        <_>
          18 22 1 2 2.</_></rects>
      <tilted>0</tilted></_>
    <_>
      <rects>
        <_>
          20 6 2 4 -1.</_>
        <_>
          21 6 1 4 2.</_></rects>
      <tilted>0</tilted></_>
    <_>
      <rects>
        <_>
          21 14 2 4 -1.</_>
        <_>
          22 14 1 4 2.</_></rects>
      <tilted>0</tilted></_>
    <_>
      <rects>
        <_>
          22 16 2 3 -1.</_>
        <_>
          23 16 1 3 2.</_></rects>
      <tilted>0</tilted></_>
    <_>
      <rects>
        <_>
          22 20 1 4 -1.</_>
        <_>
          22 22 1 2 2.</_></rects>
      <tilted>0</tilted></_></features></cascade>
</opencv_storage>
